{"Capa1": {"Weights": [[-0.08579113021258396, -0.007170428686689315, 0.08007111206568909, -0.14005839053812796, -0.2636962313265952, -0.4608761475425819, 0.01950451071951341, 0.08965767522726051, -0.0031205301000644774, 0.32100361983768366], [0.5693213743961014, -0.01744478110249503, -0.5407549440670298, 0.5806082229668169, 0.5750273648015133, 0.6003416208721527, -0.011322095439970344, -0.4954917674020811, 0.01204663262580479, -0.47736708189407007], [0.024894261991621706, -0.01707768443424522, 0.0761862799505496, 0.0038161085733123363, -0.012551923199325762, 0.09235031026229971, -0.004664477476918841, 0.0900208520596516, -0.0057676312970851434, 0.08338965979149546], [-0.15768305020611964, 0.021338452948736705, 0.1083776961170305, -0.23369017179886287, -0.2576698806142264, 0.0790229485742934, 0.0006250609050653396, 0.1298559005680294, -0.003761126782969676, -0.3630611154826839], [0.31659938704697627, 0.0027779616168580067, -0.30694656157596784, -0.17411445654236896, -0.21613971360972806, -0.36581613685143305, 0.0034953079706670637, -0.22573271920458762, -0.006507908740938655, 0.13303209303251845], [0.029154671407861158, -0.005982776987030981, 0.08131058777610657, 0.03273937558686161, 0.04124088769988813, -0.013220474066302931, -0.009911346301884996, 0.07285022990522531, -0.006259312677914792, -0.06436824829420787]], "Biases": [[0.5053358726186924, -0.012362414803372678, -0.3338420579858249, 0.4909813185491746, 0.4508124774786234, 0.25070352526168116, 0.0, -0.22903914236551515, -0.005988815813399161, 0.1366275794714382]]}, "Capa2": {"Weights": [[-0.33397255363159856, 0.32970416907611344], [-0.0023130641896330966, 0.007651712952323237], [0.3094938157449061, -0.31742238978357523], [-0.4590963314509782, 0.44955159870520933], [-0.43543203932489705, 0.4377612081371615], [-0.40126078979617824, 0.3802952673767106], [0.006204595332142926, -0.002611873601007943], [0.1948271115453494, -0.187652493021334], [-0.017352203033907426, -0.002087145693650852], [0.2605543235330233, -0.25037428466494216]], "Biases": [[-0.03803710536754608, 0.0380371053675461]]}}